digraph Tree {
node [shape=box] ;
0 [label="core_speed <= 107.6085\ngini = 0.3357\nsamples = 1960109\nvalue = [1541861, 418248]"] ;
1 [label="thrust <= 47972.4531\ngini = 0.1473\nsamples = 1533067\nvalue = [1410364, 122703]"] ;
0 -> 1 [labeldistance=2.5, labelangle=45, headlabel="True"] ;
2 [label="t_3 <= 543.8858\ngini = 0.0874\nsamples = 1305013\nvalue = [1245248, 59765]"] ;
1 -> 2 ;
3 [label="gini = 0.2588\nsamples = 336019\nvalue = [284697, 51322]"] ;
2 -> 3 ;
4 [label="fan_speed <= 106.9727\ngini = 0.0173\nsamples = 968994\nvalue = [960551, 8443]"] ;
2 -> 4 ;
5 [label="core_speed <= 106.2693\ngini = 0.0061\nsamples = 919141\nvalue = [916323, 2818]"] ;
4 -> 5 ;
6 [label="t_3 <= 553.6383\ngini = 0.0023\nsamples = 855017\nvalue = [854023, 994]"] ;
5 -> 6 ;
7 [label="gini = 0.0213\nsamples = 71277\nvalue = [70508, 769]"] ;
6 -> 7 ;
8 [label="thrust <= 47832.0859\ngini = 0.0006\nsamples = 783740\nvalue = [783515, 225]"] ;
6 -> 8 ;
9 [label="core_speed <= 105.7194\ngini = 0.0003\nsamples = 764895\nvalue = [764766, 129]"] ;
8 -> 9 ;
10 [label="t_3 <= 2945.8237\ngini = 0.0001\nsamples = 705637\nvalue = [705611, 26]"] ;
9 -> 10 ;
11 [label="t_2 <= 47.6717\ngini = 0.0001\nsamples = 705579\nvalue = [705555, 24]"] ;
10 -> 11 ;
12 [label="gini = 0.0114\nsamples = 348\nvalue = [346, 2]"] ;
11 -> 12 ;
13 [label="thrust <= 47639.0508\ngini = 0.0001\nsamples = 705231\nvalue = [705209, 22]"] ;
11 -> 13 ;
14 [label="t_2 <= 56.1234\ngini = 0.0\nsamples = 679515\nvalue = [679509, 6]"] ;
13 -> 14 ;
15 [label="gini = 0.0022\nsamples = 1858\nvalue = [1856, 2]"] ;
14 -> 15 ;
16 [label="t_4 <= 946.2947\ngini = 0.0\nsamples = 677657\nvalue = [677653, 4]"] ;
14 -> 16 ;
17 [label="fan_speed <= 105.6878\ngini = 0.0\nsamples = 673854\nvalue = [673852, 2]"] ;
16 -> 17 ;
18 [label="t_4 <= 753.675\ngini = 0.0\nsamples = 670308\nvalue = [670307, 1]"] ;
17 -> 18 ;
19 [label="gini = 0.0002\nsamples = 11254\nvalue = [11253, 1]"] ;
18 -> 19 ;
20 [label="gini = 0.0\nsamples = 659054\nvalue = [659054, 0]"] ;
18 -> 20 ;
21 [label="gini = 0.0006\nsamples = 3546\nvalue = [3545, 1]"] ;
17 -> 21 ;
22 [label="gini = 0.0011\nsamples = 3803\nvalue = [3801, 2]"] ;
16 -> 22 ;
23 [label="gini = 0.0012\nsamples = 25716\nvalue = [25700, 16]"] ;
13 -> 23 ;
24 [label="gini = 0.0666\nsamples = 58\nvalue = [56, 2]"] ;
10 -> 24 ;
25 [label="gini = 0.0035\nsamples = 59258\nvalue = [59155, 103]"] ;
9 -> 25 ;
26 [label="gini = 0.0101\nsamples = 18845\nvalue = [18749, 96]"] ;
8 -> 26 ;
27 [label="gini = 0.0553\nsamples = 64124\nvalue = [62300, 1824]"] ;
5 -> 27 ;
28 [label="gini = 0.2002\nsamples = 49853\nvalue = [44228, 5625]"] ;
4 -> 28 ;
29 [label="gini = 0.3996\nsamples = 228054\nvalue = [165116, 62938]"] ;
1 -> 29 ;
30 [label="gini = 0.4262\nsamples = 427042\nvalue = [131497, 295545]"] ;
0 -> 30 [labeldistance=2.5, labelangle=-45, headlabel="False"] ;
}